<?xml version="1.0"?>
<opencv_storage>
<cascade>
  <stageType>BOOST</stageType>
  <featureType>HAAR</featureType>
  <height>24</height>
  <width>24</width>
  <stageParams>
    <boostType>GAB</boostType>
    <minHitRate>9.9500000476837158e-01</minHitRate>
    <maxFalseAlarm>5.0000000000000000e-01</maxFalseAlarm>
    <weightTrimRate>9.4999998807907104e-01</weightTrimRate>
    <maxDepth>1</maxDepth>
    <maxWeakCount>100</maxWeakCount></stageParams>
  <featureParams>
    <maxCatCount>0</maxCatCount>
    <featSize>1</featSize>
    <mode>BASIC</mode></featureParams>
  <stageNum>15</stageNum>
  <stages>
    <!-- stage 0 -->
    <_>
      <maxWeakCount>1</maxWeakCount>
      <stageThreshold>3.4579437971115112e-01</stageThreshold>
      <weakClassifiers>
        <_>
          <internalNodes>
            0 -1 15 -8.3073563873767853e-03</internalNodes>
          <leafValues>
            3.4579437971115112e-01 -1.</leafValues></_></weakClassifiers></_>
    <!-- stage 1 -->
    <_>
      <maxWeakCount>2</maxWeakCount>
      <stageThreshold>-2.3479101061820984e-01</stageThreshold>
      <weakClassifiers>
        <_>
          <internalNodes>
            0 -1 46 6.9958129897713661e-03</internalNodes>
          <leafValues>
            -7.1597635746002197e-01 5.2380955219268799e-01</leafValues></_>
        <_>
          <internalNodes>
            0 -1 7 9.3239685520529747e-03</internalNodes>
          <leafValues>
            -7.5860053300857544e-01 5.6612771749496460e-01</leafValues></_></weakClassifiers></_>
    <!-- stage 2 -->
    <_>
      <maxWeakCount>2</maxWeakCount>
      <stageThreshold>-3.6392706632614136e-01</stageThreshold>
      <weakClassifiers>
        <_>
          <internalNodes>
            0 -1 5 -4.5901262201368809e-03</internalNodes>
          <leafValues>
            5.4098361730575562e-01 -7.0760232210159302e-01</leafValues></_>
        <_>
          <internalNodes>
            0 -1 11 1.6769347712397575e-02</internalNodes>
          <leafValues>
            3.4367525577545166e-01 -1.</leafValues></_></weakClassifiers></_>
    <!-- stage 3 -->
    <_>
      <maxWeakCount>4</maxWeakCount>
      <stageThreshold>-5.0359803438186646e-01</stageThreshold>
      <weakClassifiers>
        <_>
          <internalNodes>
            0 -1 17 1.0025401134043932e-03</internalNodes>
          <leafValues>
            -6.1025643348693848e-01 8.3783781528472900e-01</leafValues></_>
        <_>
          <internalNodes>
            0 -1 34 -9.0046077966690063e-03</internalNodes>
          <leafValues>
            3.9002013206481934e-01 -8.8135397434234619e-01</leafValues></_>
        <_>
          <internalNodes>
            0 -1 28 -7.0012351498007774e-03</internalNodes>
          <leafValues>
            4.4653579592704773e-01 -7.7302068471908569e-01</leafValues></_>
        <_>
          <internalNodes>
            0 -1 18 2.6645110920071602e-03</internalNodes>
          <leafValues>
            -6.6396838426589966e-01 5.4147654771804810e-01</leafValues></_></weakClassifiers></_>
    <!-- stage 4 -->
    <_>
      <maxWeakCount>2</maxWeakCount>
      <stageThreshold>-3.1473892927169800e-01</stageThreshold>
      <weakClassifiers>
        <_>
          <internalNodes>
            0 -1 29 -1.9774739630520344e-03</internalNodes>
          <leafValues>
            4.6428570151329041e-01 -6.4772725105285645e-01</leafValues></_>
        <_>
          <internalNodes>
            0 -1 0 -6.3139628618955612e-03</internalNodes>
          <leafValues>
            4.5037001371383667e-01 -7.7902466058731079e-01</leafValues></_></weakClassifiers></_>
    <!-- stage 5 -->
    <_>
      <maxWeakCount>5</maxWeakCount>
      <stageThreshold>-9.0191322565078735e-01</stageThreshold>
      <weakClassifiers>
        <_>
          <internalNodes>
            0 -1 25 1.4260818716138601e-03</internalNodes>
          <leafValues>
            -5.9585493803024292e-01 6.9230771064758301e-01</leafValues></_>
        <_>
          <internalNodes>
            0 -1 40 -5.3420348558574915e-04</internalNodes>
          <leafValues>
            6.4985322952270508e-01 -6.1350679397583008e-01</leafValues></_>
        <_>
          <internalNodes>
            0 -1 26 -1.3512179255485535e-02</internalNodes>
          <leafValues>
            -9.1727262735366821e-01 4.0443691611289978e-01</leafValues></_>
        <_>
          <internalNodes>
            0 -1 39 -3.7943483330309391e-03</internalNodes>
          <leafValues>
            8.3998572826385498e-01 -4.4398540258407593e-01</leafValues></_>
        <_>
          <internalNodes>
            0 -1 13 1.8912523984909058e-02</internalNodes>
          <leafValues>
            4.0534654259681702e-01 -1.</leafValues></_></weakClassifiers></_>
    <!-- stage 6 -->
    <_>
      <maxWeakCount>4</maxWeakCount>
      <stageThreshold>-3.6161133646965027e-01</stageThreshold>
      <weakClassifiers>
        <_>
          <internalNodes>
            0 -1 19 -1.1399663053452969e-03</internalNodes>
          <leafValues>
            6.7567569017410278e-01 -5.7948720455169678e-01</leafValues></_>
        <_>
          <internalNodes>
            0 -1 32 -4.2411603033542633e-02</internalNodes>
          <leafValues>
            -1. 2.7899771928787231e-01</leafValues></_>
        <_>
          <internalNodes>
            0 -1 42 -2.6811577845364809e-03</internalNodes>
          <leafValues>
            8.3379095792770386e-01 -4.3924719095230103e-01</leafValues></_>
        <_>
          <internalNodes>
            0 -1 6 -2.0586777478456497e-02</internalNodes>
          <leafValues>
            -1. 3.7812530994415283e-01</leafValues></_></weakClassifiers></_>
    <!-- stage 7 -->
    <_>
      <maxWeakCount>3</maxWeakCount>
      <stageThreshold>-5.8994996547698975e-01</stageThreshold>
      <weakClassifiers>
        <_>
          <internalNodes>
            0 -1 21 1.5314439311623573e-02</internalNodes>
          <leafValues>
            -5.7142859697341919e-01 6.6666668653488159e-01</leafValues></_>
        <_>
          <internalNodes>
            0 -1 3 -4.0182205848395824e-03</internalNodes>
          <leafValues>
            -7.2267121076583862e-01 3.8297408819198608e-01</leafValues></_>
        <_>
          <internalNodes>
            0 -1 37 -2.6713593397289515e-03</internalNodes>
          <leafValues>
            8.0944645404815674e-01 -4.0149548649787903e-01</leafValues></_></weakClassifiers></_>
    <!-- stage 8 -->
    <_>
      <maxWeakCount>4</maxWeakCount>
      <stageThreshold>-7.5445729494094849e-01</stageThreshold>
      <weakClassifiers>
        <_>
          <internalNodes>
            0 -1 48 5.1450505852699280e-03</internalNodes>
          <leafValues>
            -6.4705884456634521e-01 3.5483869910240173e-01</leafValues></_>
        <_>
          <internalNodes>
            0 -1 12 1.2072009965777397e-02</internalNodes>
          <leafValues>
            -6.4850991964340210e-01 4.4673618674278259e-01</leafValues></_>
        <_>
          <internalNodes>
            0 -1 31 -1.3543434441089630e-02</internalNodes>
          <leafValues>
            -1. 2.8456550836563110e-01</leafValues></_>
        <_>
          <internalNodes>
            0 -1 44 -1.3045305386185646e-03</internalNodes>
          <leafValues>
            3.7627127766609192e-01 -7.4535155296325684e-01</leafValues></_></weakClassifiers></_>
    <!-- stage 9 -->
    <_>
      <maxWeakCount>4</maxWeakCount>
      <stageThreshold>-4.0155944228172302e-01</stageThreshold>
      <weakClassifiers>
        <_>
          <internalNodes>
            0 -1 10 -1.3017268851399422e-02</internalNodes>
          <leafValues>
            6.4705884456634521e-01 -5.5555558204650879e-01</leafValues></_>
        <_>
          <internalNodes>
            0 -1 45 5.4367715492844582e-03</internalNodes>
          <leafValues>
            -5.8748573064804077e-01 4.3501868844032288e-01</leafValues></_>
        <_>
          <internalNodes>
            0 -1 8 1.7853260040283203e-02</internalNodes>
          <leafValues>
            2.3893801867961884e-01 -1.</leafValues></_>
        <_>
          <internalNodes>
            0 -1 47 -6.7847026512026787e-03</internalNodes>
          <leafValues>
            6.3006979227066040e-01 -5.1996058225631714e-01</leafValues></_></weakClassifiers></_>
    <!-- stage 10 -->
    <_>
      <maxWeakCount>3</maxWeakCount>
      <stageThreshold>-2.4162419140338898e-01</stageThreshold>
      <weakClassifiers>
        <_>
          <internalNodes>
            0 -1 41 1.3833785429596901e-02</internalNodes>
          <leafValues>
            -6.5789476037025452e-02 -9.7500002384185791e-01</leafValues></_>
        <_>
          <internalNodes>
            0 -1 43 -3.0550258234143257e-03</internalNodes>
          <leafValues>
            2.2757917642593384e-01 -7.3270219564437866e-01</leafValues></_>
        <_>
          <internalNodes>
            0 -1 38 3.9989911019802094e-03</internalNodes>
          <leafValues>
            -4.0341389179229736e-01 7.3688185214996338e-01</leafValues></_></weakClassifiers></_>
    <!-- stage 11 -->
    <_>
      <maxWeakCount>5</maxWeakCount>
      <stageThreshold>-4.4929599761962891e-01</stageThreshold>
      <weakClassifiers>
        <_>
          <internalNodes>
            0 -1 23 6.2881298363208771e-02</internalNodes>
          <leafValues>
            -5.4228854179382324e-01 6.7741936445236206e-01</leafValues></_>
        <_>
          <internalNodes>
            0 -1 32 -2.2573530673980713e-02</internalNodes>
          <leafValues>
            2.8897848725318909e-01 -8.2152199745178223e-01</leafValues></_>
        <_>
          <internalNodes>
            0 -1 35 1.1126289609819651e-03</internalNodes>
          <leafValues>
            -3.7469699978828430e-01 6.6519486904144287e-01</leafValues></_>
        <_>
          <internalNodes>
            0 -1 27 2.3618185892701149e-02</internalNodes>
          <leafValues>
            -3.6387333273887634e-01 7.0036339759826660e-01</leafValues></_>
        <_>
          <internalNodes>
            0 -1 33 -2.3506391793489456e-02</internalNodes>
          <leafValues>
            6.0492712259292603e-01 -5.2165234088897705e-01</leafValues></_></weakClassifiers></_>
    <!-- stage 12 -->
    <_>
      <maxWeakCount>3</maxWeakCount>
      <stageThreshold>-2.0634771883487701e-01</stageThreshold>
      <weakClassifiers>
        <_>
          <internalNodes>
            0 -1 36 1.7167555168271065e-02</internalNodes>
          <leafValues>
            -5.7219249010086060e-01 4.2222222685813904e-01</leafValues></_>
        <_>
          <internalNodes>
            0 -1 2 -1.2993521988391876e-02</internalNodes>
          <leafValues>
            -1. 1.7962354421615601e-01</leafValues></_>
        <_>
          <internalNodes>
            0 -1 1 1.0919619351625443e-02</internalNodes>
          <leafValues>
            1.8622125685214996e-01 -1.</leafValues></_></weakClassifiers></_>
    <!-- stage 13 -->
    <_>
      <maxWeakCount>4</maxWeakCount>
      <stageThreshold>-2.6134327054023743e-01</stageThreshold>
      <weakClassifiers>
        <_>
          <internalNodes>
            0 -1 24 3.9219995960593224e-03</internalNodes>
          <leafValues>
            -6.1497324705123901e-01 6.0000002384185791e-01</leafValues></_>
        <_>
          <internalNodes>
            0 -1 9 -8.6212575435638428e-02</internalNodes>
          <leafValues>
            -1. 2.3587712645530701e-01</leafValues></_>
        <_>
          <internalNodes>
            0 -1 22 -1.2656688690185547e-02</internalNodes>
          <leafValues>
            7.4902731180191040e-01 -4.0511146187782288e-01</leafValues></_>
        <_>
          <internalNodes>
            0 -1 20 -3.9969239151105285e-04</internalNodes>
          <leafValues>
            5.2286434173583984e-01 -5.9245395660400391e-01</leafValues></_></weakClassifiers></_>
    <!-- stage 14 -->
    <_>
      <maxWeakCount>4</maxWeakCount>
      <stageThreshold>-6.2408632040023804e-01</stageThreshold>
      <weakClassifiers>
        <_>
          <internalNodes>
            0 -1 14 4.7180801630020142e-03</internalNodes>
          <leafValues>
            -6.0000002384185791e-01 6.1904764175415039e-01</leafValues></_>
        <_>
          <internalNodes>
            0 -1 16 6.3986242748796940e-03</internalNodes>
          <leafValues>
            -5.0951260328292847e-01 6.5101391077041626e-01</leafValues></_>
        <_>
          <internalNodes>
            0 -1 30 -1.8905725330114365e-02</internalNodes>
          <leafValues>
            -9.5038723945617676e-01 3.2284393906593323e-01</leafValues></_>
        <_>
          <internalNodes>
            0 -1 4 1.1601272970438004e-02</internalNodes>
          <leafValues>
            2.7528694272041321e-01 -9.1448348760604858e-01</leafValues></_></weakClassifiers></_></stages>
  <features>
    <_>
      <rects>
        <_>
          0 0 8 5 -1.</_>
        <_>
          4 0 4 5 2.</_></rects>
      <tilted>0</tilted></_>
    <_>
      <rects>
        <_>
          0 7 21 10 -1.</_>
        <_>
          7 7 7 10 3.</_></rects>
      <tilted>0</tilted></_>
    <_>
      <rects>
        <_>
          1 7 15 7 -1.</_>
        <_>
          6 7 5 7 3.</_></rects>
      <tilted>0</tilted></_>
    <_>
      <rects>
        <_>
          1 13 8 10 -1.</_>
        <_>
          1 18 8 5 2.</_></rects>
      <tilted>0</tilted></_>
    <_>
      <rects>
        <_>
          1 15 12 8 -1.</_>
        <_>
          1 15 6 4 2.</_>
        <_>
          7 19 6 4 2.</_></rects>
      <tilted>0</tilted></_>
    <_>
      <rects>
        <_>
          2 0 19 2 -1.</_>
        <_>
          2 1 19 1 2.</_></rects>
      <tilted>0</tilted></_>
    <_>
      <rects>
        <_>
          2 3 8 9 -1.</_>
        <_>
          6 3 4 9 2.</_></rects>
      <tilted>0</tilted></_>
    <_>
      <rects>
        <_>
          2 16 5 8 -1.</_>
        <_>
          2 20 5 4 2.</_></rects>
      <tilted>0</tilted></_>
    <_>
      <rects>
        <_>
          3 7 21 10 -1.</_>
        <_>
          10 7 7 10 3.</_></rects>
      <tilted>0</tilted></_>
    <_>
      <rects>
        <_>
          3 8 18 8 -1.</_>
        <_>
          9 8 6 8 3.</_></rects>
      <tilted>0</tilted></_>
    <_>
      <rects>
        <_>
          4 11 16 3 -1.</_>
        <_>
          4 12 16 1 3.</_></rects>
      <tilted>0</tilted></_>
    <_>
      <rects>
        <_>
          4 14 8 8 -1.</_>
        <_>
          4 18 8 4 2.</_></rects>
      <tilted>0</tilted></_>
    <_>
      <rects>
        <_>
          5 11 8 10 -1.</_>
        <_>
          5 11 4 5 2.</_>
        <_>
          9 16 4 5 2.</_></rects>
      <tilted>0</tilted></_>
    <_>
      <rects>
        <_>
          6 1 11 21 -1.</_>
        <_>
          6 8 11 7 3.</_></rects>
      <tilted>0</tilted></_>
    <_>
      <rects>
        <_>
          6 5 12 9 -1.</_>
        <_>
          6 8 12 3 3.</_></rects>
      <tilted>0</tilted></_>
    <_>
      <rects>
        <_>
          6 10 12 3 -1.</_>
        <_>
          10 10 4 3 3.</_></rects>
      <tilted>0</tilted></_>
    <_>
      <rects>
        <_>
          6 11 4 6 -1.</_>
        <_>
          6 13 4 2 3.</_></rects>
      <tilted>0</tilted></_>
    <_>
      <rects>
        <_>
          6 14 2 2 -1.</_>
        <_>
          6 14 1 1 2.</_>
        <_>
          7 15 1 1 2.</_></rects>
      <tilted>0</tilted></_>
    <_>
      <rects>
        <_>
          7 3 11 4 -1.</_>
        <_>
          7 5 11 2 2.</_></rects>
      <tilted>0</tilted></_>
    <_>
      <rects>
        <_>
          7 6 2 2 -1.</_>
        <_>
          7 6 1 1 2.</_>
        <_>
          8 7 1 1 2.</_></rects>
      <tilted>0</tilted></_>
    <_>
      <rects>
        <_>
          7 6 4 6 -1.</_>
        <_>
          7 8 4 2 3.</_></rects>
      <tilted>0</tilted></_>
    <_>
      <rects>
        <_>
          7 11 5 6 -1.</_>
        <_>
          7 13 5 2 3.</_></rects>
      <tilted>0</tilted></_>
    <_>
      <rects>
        <_>
          7 13 10 4 -1.</_>
        <_>
          7 13 5 2 2.</_>
        <_>
          12 15 5 2 2.</_></rects>
      <tilted>0</tilted></_>
    <_>
      <rects>
        <_>
          8 0 12 18 -1.</_>
        <_>
          12 0 4 18 3.</_></rects>
      <tilted>0</tilted></_>
    <_>
      <rects>
        <_>
          8 8 6 3 -1.</_>
        <_>
          11 8 3 3 2.</_></rects>
      <tilted>0</tilted></_>
    <_>
      <rects>
        <_>
          8 10 2 3 -1.</_>
        <_>
          9 10 1 3 2.</_></rects>
      <tilted>0</tilted></_>
    <_>
      <rects>
        <_>
          8 10 15 7 -1.</_>
        <_>
          13 10 5 7 3.</_></rects>
      <tilted>0</tilted></_>
    <_>
      <rects>
        <_>
          8 11 4 10 -1.</_>
        <_>
          8 16 4 5 2.</_></rects>
      <tilted>0</tilted></_>
    <_>
      <rects>
        <_>
          9 17 15 6 -1.</_>
        <_>
          14 17 5 6 3.</_></rects>
      <tilted>0</tilted></_>
    <_>
      <rects>
        <_>
          10 0 3 3 -1.</_>
        <_>
          10 1 3 1 3.</_></rects>
      <tilted>0</tilted></_>
    <_>
      <rects>
        <_>
          10 1 7 15 -1.</_>
        <_>
          10 6 7 5 3.</_></rects>
      <tilted>0</tilted></_>
    <_>
      <rects>
        <_>
          10 1 9 8 -1.</_>
        <_>
          10 5 9 4 2.</_></rects>
      <tilted>0</tilted></_>
    <_>
      <rects>
        <_>
          10 4 4 15 -1.</_>
        <_>
          10 9 4 5 3.</_></rects>
      <tilted>0</tilted></_>
    <_>
      <rects>
        <_>
          11 4 4 12 -1.</_>
        <_>
          11 8 4 4 3.</_></rects>
      <tilted>0</tilted></_>
    <_>
      <rects>
        <_>
          11 6 2 12 -1.</_>
        <_>
          11 10 2 4 3.</_></rects>
      <tilted>0</tilted></_>
    <_>
      <rects>
        <_>
          11 12 2 2 -1.</_>
        <_>
          11 12 1 1 2.</_>
        <_>
          12 13 1 1 2.</_></rects>
      <tilted>0</tilted></_>
    <_>
      <rects>
        <_>
          12 6 6 6 -1.</_>
        <_>
          12 8 6 2 3.</_></rects>
      <tilted>0</tilted></_>
    <_>
      <rects>
        <_>
          13 10 1 3 -1.</_>
        <_>
          13 11 1 1 3.</_></rects>
      <tilted>0</tilted></_>
    <_>
      <rects>
        <_>
          13 11 4 4 -1.</_>
        <_>
          13 11 2 2 2.</_>
        <_>
          15 13 2 2 2.</_></rects>
      <tilted>0</tilted></_>
    <_>
      <rects>
        <_>
          14 9 3 4 -1.</_>
        <_>
          15 9 1 4 3.</_></rects>
      <tilted>0</tilted></_>
    <_>
      <rects>
        <_>
          14 10 2 5 -1.</_>
        <_>
          15 10 1 5 2.</_></rects>
      <tilted>0</tilted></_>
    <_>
      <rects>
        <_>
          15 10 8 8 -1.</_>
        <_>
          19 10 4 8 2.</_></rects>
      <tilted>0</tilted></_>
    <_>
      <rects>
        <_>
          15 14 2 4 -1.</_>
        <_>
          15 14 1 2 2.</_>
        <_>
          16 16 1 2 2.</_></rects>
      <tilted>0</tilted></_>
    <_>
      <rects>
        <_>
          17 0 6 8 -1.</_>
        <_>
          17 4 6 4 2.</_></rects>
      <tilted>0</tilted></_>
    <_>
      <rects>
        <_>
          18 0 5 10 -1.</_>
        <_>
          18 5 5 5 2.</_></rects>
      <tilted>0</tilted></_>
    <_>
      <rects>
        <_>
          18 17 6 5 -1.</_>
        <_>
          21 17 3 5 2.</_></rects>
      <tilted>0</tilted></_>
    <_>
      <rects>
        <_>
          18 18 4 6 -1.</_>
        <_>
          18 21 4 3 2.</_></rects>
      <tilted>0</tilted></_>
    <_>
      <rects>
        <_>
          19 2 4 16 -1.</_>
        <_>
          19 2 2 8 2.</_>
        <_>
          21 10 2 8 2.</_></rects>
      <tilted>0</tilted></_>
    <_>
      <rects>
        <_>
          22 3 2 15 -1.</_>
        <_>
          23 3 1 15 2.</_></rects>
      <tilted>0</tilted></_></features></cascade>
</opencv_storage>
